{
  "chi_mhz": -2.84,
  "displacement": {
    "amp": 0.035,
    "duration_ns": 80.0,
    "nbar_after_displacement": 1.5780061047777976,
    "p_n_first_8": [
      0.20638647815264885,
      0.3256784585319976,
      0.2569612363841307,
      0.1351623154162719,
      0.053321823398381214,
      0.016828434705515684,
      0.004425884707772959,
      0.0009977199557847762
    ]
  },
  "spectroscopy": {
    "amp": 0.004,
    "duration_ns": 1200.0,
    "gap_ns": 20.0,
    "transition_detunings_mhz": [
      -12.0,
      -11.8,
      -11.6,
      -11.4,
      -11.2,
      -11.0,
      -10.8,
      -10.6,
      -10.4,
      -10.2,
      -10.0,
      -9.8,
      -9.6,
      -9.4,
      -9.2,
      -9.0,
      -8.8,
      -8.6,
      -8.4,
      -8.2,
      -8.0,
      -7.8,
      -7.6,
      -7.3999999999999995,
      -7.199999999999999,
      -7.0,
      -6.8,
      -6.6,
      -6.3999999999999995,
      -6.199999999999999,
      -6.0,
      -5.8,
      -5.6,
      -5.3999999999999995,
      -5.199999999999999,
      -5.0,
      -4.8,
      -4.6,
      -4.3999999999999995,
      -4.199999999999999,
      -4.0,
      -3.799999999999999,
      -3.5999999999999996,
      -3.4000000000000004,
      -3.1999999999999993,
      -3.0,
      -2.799999999999999,
      -2.5999999999999996,
      -2.3999999999999986,
      -2.1999999999999993,
      -2.0,
      -1.799999999999999,
      -1.5999999999999996,
      -1.3999999999999986,
      -1.1999999999999993,
      -1.0,
      -0.7999999999999989,
      -0.5999999999999996,
      -0.3999999999999986,
      -0.1999999999999993,
      0.0,
      0.20000000000000107,
      0.40000000000000036,
      0.6000000000000014,
      0.8000000000000007,
      1.0,
      1.200000000000001,
      1.4000000000000004,
      1.6000000000000014,
      1.8000000000000007,
      2.0
    ],
    "pe_final": [
      0.05064530708980028,
      0.06402068984270949,
      0.06543011089863097,
      0.07135980432153448,
      0.08462792612359737,
      0.08397186968085735,
      0.05752050188490525,
      0.030388979500510664,
      0.03654859966601427,
      0.06852191370877976,
      0.08154392959774129,
      0.05523653662967505,
      0.0265721013640058,
      0.04200184272713481,
      0.09439716571756611,
      0.1362616532176413,
      0.1482034871260376,
      0.15766666003067994,
      0.18056237087400262,
      0.18286662691195277,
      0.13253028129851607,
      0.06565317371420294,
      0.05377689960184969,
      0.10496550001699684,
      0.14411383745918085,
      0.11335104340078955,
      0.054863544127393804,
      0.056091948982350384,
      0.13412668660301894,
      0.22193478664649194,
      0.2658831596500269,
      0.2841167642686703,
      0.3070334687407055,
      0.3074813441552933,
      0.24017353584959025,
      0.1318533962343023,
      0.07380869363465632,
      0.10977160472606329,
      0.17421030949642746,
      0.17425877465097941,
      0.10943404797790461,
      0.07072966485089523,
      0.1254424728270127,
      0.2404455165128518,
      0.3330350655655213,
      0.366539446847877,
      0.3652719884772526,
      0.3492093182268793,
      0.2975679889490476,
      0.19626225623980778,
      0.09266323324882615,
      0.061840010566239556,
      0.11388206792447449,
      0.16925869655385495,
      0.15136239116985786,
      0.08447823275812355,
      0.06450060179878109,
      0.13471535621134334,
      0.23063450159576396,
      0.26596059033625563,
      0.237380717940552,
      0.2055360462608616,
      0.1932889990714656,
      0.15927710860300742,
      0.08183189231196454,
      0.01496566106480312,
      0.021171055880381002,
      0.07864437436925874,
      0.10530626500731054,
      0.06804269241487643,
      0.01969400156306866
    ],
    "peak_detuning_mhz": -3.0
  },
  "predicted_transition_lines_mhz": [
    0.0,
    -2.84,
    -5.68,
    -8.52,
    -11.36,
    -14.2,
    -17.04,
    -19.880000000000003
  ],
  "predicted_line_weights": [
    0.20638647815264885,
    0.3256784585319976,
    0.2569612363841307,
    0.1351623154162719,
    0.053321823398381214,
    0.016828434705515684,
    0.004425884707772959,
    0.0009977199557847762
  ],
  "units": {
    "transition_detuning": "MHz relative to the qubit rotating frame",
    "chi": "MHz",
    "carrier": "internal waveform carrier in rad/ns; carrier = -transition_detuning"
  }
}